digraph Tree {
node [shape=box] ;
0 [label="X[12] <= 0.1418\ngini = 0.5\nsamples = 3168\nvalue = [1584, 1584]"] ;
1 [label="X[5] <= 0.0713\ngini = 0.103\nsamples = 1616\nvalue = [88, 1528]"] ;
0 -> 1 [labeldistance=2.5, labelangle=45, headlabel="True"] ;
2 [label="X[12] <= 0.1298\ngini = 0.4651\nsamples = 87\nvalue = [55, 32]"] ;
1 -> 2 ;
3 [label="X[9] <= 0.4381\ngini = 0.4383\nsamples = 37\nvalue = [12, 25]"] ;
2 -> 3 ;
4 [label="X[1] <= 0.0432\ngini = 0.1528\nsamples = 24\nvalue = [2, 22]"] ;
3 -> 4 ;
5 [label="gini = 0.0\nsamples = 1\nvalue = [1, 0]"] ;
4 -> 5 ;
6 [label="X[17] <= 0.4219\ngini = 0.0832\nsamples = 23\nvalue = [1, 22]"] ;
4 -> 6 ;
7 [label="gini = 0.0\nsamples = 1\nvalue = [1, 0]"] ;
6 -> 7 ;
8 [label="gini = 0.0\nsamples = 22\nvalue = [0, 22]"] ;
6 -> 8 ;
9 [label="X[17] <= 4.1787\ngini = 0.355\nsamples = 13\nvalue = [10, 3]"] ;
3 -> 9 ;
10 [label="gini = 0.0\nsamples = 9\nvalue = [9, 0]"] ;
9 -> 10 ;
11 [label="X[16] <= 0.0156\ngini = 0.375\nsamples = 4\nvalue = [1, 3]"] ;
9 -> 11 ;
12 [label="gini = 0.0\nsamples = 1\nvalue = [1, 0]"] ;
11 -> 12 ;
13 [label="gini = 0.0\nsamples = 3\nvalue = [0, 3]"] ;
11 -> 13 ;
14 [label="X[10] <= 0.1998\ngini = 0.2408\nsamples = 50\nvalue = [43, 7]"] ;
2 -> 14 ;
15 [label="X[19] <= 0.0474\ngini = 0.1049\nsamples = 36\nvalue = [34, 2]"] ;
14 -> 15 ;
16 [label="gini = 0.0\nsamples = 1\nvalue = [0, 1]"] ;
15 -> 16 ;
17 [label="X[12] <= 0.1312\ngini = 0.0555\nsamples = 35\nvalue = [34, 1]"] ;
15 -> 17 ;
18 [label="X[7] <= 5.309\ngini = 0.4444\nsamples = 3\nvalue = [2, 1]"] ;
17 -> 18 ;
19 [label="gini = 0.0\nsamples = 1\nvalue = [0, 1]"] ;
18 -> 19 ;
20 [label="gini = 0.0\nsamples = 2\nvalue = [2, 0]"] ;
18 -> 20 ;
21 [label="gini = 0.0\nsamples = 32\nvalue = [32, 0]"] ;
17 -> 21 ;
22 [label="X[3] <= 0.1662\ngini = 0.4592\nsamples = 14\nvalue = [9, 5]"] ;
14 -> 22 ;
23 [label="X[18] <= 8.25\ngini = 0.32\nsamples = 5\nvalue = [1, 4]"] ;
22 -> 23 ;
24 [label="gini = 0.0\nsamples = 4\nvalue = [0, 4]"] ;
23 -> 24 ;
25 [label="gini = 0.0\nsamples = 1\nvalue = [1, 0]"] ;
23 -> 25 ;
26 [label="X[3] <= 0.2155\ngini = 0.1975\nsamples = 9\nvalue = [8, 1]"] ;
22 -> 26 ;
27 [label="gini = 0.0\nsamples = 8\nvalue = [8, 0]"] ;
26 -> 27 ;
28 [label="gini = 0.0\nsamples = 1\nvalue = [0, 1]"] ;
26 -> 28 ;
29 [label="X[12] <= 0.1341\ngini = 0.0422\nsamples = 1529\nvalue = [33, 1496]"] ;
1 -> 29 ;
30 [label="X[6] <= 34.6315\ngini = 0.013\nsamples = 1375\nvalue = [9, 1366]"] ;
29 -> 30 ;
31 [label="X[13] <= 0.0104\ngini = 0.0116\nsamples = 1374\nvalue = [8, 1366]"] ;
30 -> 31 ;
32 [label="gini = 0.0\nsamples = 1\nvalue = [1, 0]"] ;
31 -> 32 ;
33 [label="X[13] <= 0.0154\ngini = 0.0101\nsamples = 1373\nvalue = [7, 1366]"] ;
31 -> 33 ;
34 [label="X[12] <= 0.1198\ngini = 0.32\nsamples = 15\nvalue = [3, 12]"] ;
33 -> 34 ;
35 [label="gini = 0.0\nsamples = 12\nvalue = [0, 12]"] ;
34 -> 35 ;
36 [label="gini = 0.0\nsamples = 3\nvalue = [3, 0]"] ;
34 -> 36 ;
37 [label="X[4] <= 0.1416\ngini = 0.0059\nsamples = 1358\nvalue = [4, 1354]"] ;
33 -> 37 ;
38 [label="X[10] <= 0.0109\ngini = 0.1975\nsamples = 9\nvalue = [1, 8]"] ;
37 -> 38 ;
39 [label="gini = 0.0\nsamples = 8\nvalue = [0, 8]"] ;
38 -> 39 ;
40 [label="gini = 0.0\nsamples = 1\nvalue = [1, 0]"] ;
38 -> 40 ;
41 [label="X[9] <= 0.7787\ngini = 0.0044\nsamples = 1349\nvalue = [3, 1346]"] ;
37 -> 41 ;
42 [label="X[5] <= 0.0788\ngini = 0.003\nsamples = 1330\nvalue = [2, 1328]"] ;
41 -> 42 ;
43 [label="X[15] <= 0.1382\ngini = 0.0768\nsamples = 25\nvalue = [1, 24]"] ;
42 -> 43 ;
44 [label="X[13] <= 0.0162\ngini = 0.5\nsamples = 2\nvalue = [1, 1]"] ;
43 -> 44 ;
45 [label="gini = 0.0\nsamples = 1\nvalue = [0, 1]"] ;
44 -> 45 ;
46 [label="gini = 0.0\nsamples = 1\nvalue = [1, 0]"] ;
44 -> 46 ;
47 [label="gini = 0.0\nsamples = 23\nvalue = [0, 23]"] ;
43 -> 47 ;
48 [label="X[5] <= 0.0972\ngini = 0.0015\nsamples = 1305\nvalue = [1, 1304]"] ;
42 -> 48 ;
49 [label="X[5] <= 0.0971\ngini = 0.0108\nsamples = 185\nvalue = [1, 184]"] ;
48 -> 49 ;
50 [label="gini = 0.0\nsamples = 184\nvalue = [0, 184]"] ;
49 -> 50 ;
51 [label="gini = 0.0\nsamples = 1\nvalue = [1, 0]"] ;
49 -> 51 ;
52 [label="gini = 0.0\nsamples = 1120\nvalue = [0, 1120]"] ;
48 -> 52 ;
53 [label="X[9] <= 0.7792\ngini = 0.0997\nsamples = 19\nvalue = [1, 18]"] ;
41 -> 53 ;
54 [label="gini = 0.0\nsamples = 1\nvalue = [1, 0]"] ;
53 -> 54 ;
55 [label="gini = 0.0\nsamples = 18\nvalue = [0, 18]"] ;
53 -> 55 ;
56 [label="gini = 0.0\nsamples = 1\nvalue = [1, 0]"] ;
30 -> 56 ;
57 [label="X[13] <= 0.0414\ngini = 0.2631\nsamples = 154\nvalue = [24, 130]"] ;
29 -> 57 ;
58 [label="X[4] <= 0.234\ngini = 0.4688\nsamples = 32\nvalue = [20, 12]"] ;
57 -> 58 ;
59 [label="X[6] <= 1.3641\ngini = 0.1884\nsamples = 19\nvalue = [17, 2]"] ;
58 -> 59 ;
60 [label="gini = 0.0\nsamples = 2\nvalue = [0, 2]"] ;
59 -> 60 ;
61 [label="gini = 0.0\nsamples = 17\nvalue = [17, 0]"] ;
59 -> 61 ;
62 [label="X[10] <= 0.1419\ngini = 0.355\nsamples = 13\nvalue = [3, 10]"] ;
58 -> 62 ;
63 [label="gini = 0.0\nsamples = 7\nvalue = [0, 7]"] ;
62 -> 63 ;
64 [label="X[9] <= 0.4183\ngini = 0.5\nsamples = 6\nvalue = [3, 3]"] ;
62 -> 64 ;
65 [label="gini = 0.0\nsamples = 3\nvalue = [0, 3]"] ;
64 -> 65 ;
66 [label="gini = 0.0\nsamples = 3\nvalue = [3, 0]"] ;
64 -> 66 ;
67 [label="X[16] <= 0.1987\ngini = 0.0634\nsamples = 122\nvalue = [4, 118]"] ;
57 -> 67 ;
68 [label="X[3] <= 0.1502\ngini = 0.0484\nsamples = 121\nvalue = [3, 118]"] ;
67 -> 68 ;
69 [label="gini = 0.0\nsamples = 110\nvalue = [0, 110]"] ;
68 -> 69 ;
70 [label="X[11] <= 0.1903\ngini = 0.3967\nsamples = 11\nvalue = [3, 8]"] ;
68 -> 70 ;
71 [label="gini = 0.0\nsamples = 2\nvalue = [2, 0]"] ;
70 -> 71 ;
72 [label="X[4] <= 0.2516\ngini = 0.1975\nsamples = 9\nvalue = [1, 8]"] ;
70 -> 72 ;
73 [label="gini = 0.0\nsamples = 8\nvalue = [0, 8]"] ;
72 -> 73 ;
74 [label="gini = 0.0\nsamples = 1\nvalue = [1, 0]"] ;
72 -> 74 ;
75 [label="gini = 0.0\nsamples = 1\nvalue = [1, 0]"] ;
67 -> 75 ;
76 [label="X[12] <= 0.1476\ngini = 0.0696\nsamples = 1552\nvalue = [1496, 56]"] ;
0 -> 76 [labeldistance=2.5, labelangle=-45, headlabel="False"] ;
77 [label="X[5] <= 0.0706\ngini = 0.417\nsamples = 108\nvalue = [76, 32]"] ;
76 -> 77 ;
78 [label="X[13] <= 0.0491\ngini = 0.0624\nsamples = 62\nvalue = [60, 2]"] ;
77 -> 78 ;
79 [label="X[12] <= 0.1473\ngini = 0.0333\nsamples = 59\nvalue = [58, 1]"] ;
78 -> 79 ;
80 [label="gini = 0.0\nsamples = 56\nvalue = [56, 0]"] ;
79 -> 80 ;
81 [label="X[19] <= 0.1818\ngini = 0.4444\nsamples = 3\nvalue = [2, 1]"] ;
79 -> 81 ;
82 [label="gini = 0.0\nsamples = 2\nvalue = [2, 0]"] ;
81 -> 82 ;
83 [label="gini = 0.0\nsamples = 1\nvalue = [0, 1]"] ;
81 -> 83 ;
84 [label="X[5] <= 0.0506\ngini = 0.4444\nsamples = 3\nvalue = [2, 1]"] ;
78 -> 84 ;
85 [label="gini = 0.0\nsamples = 2\nvalue = [2, 0]"] ;
84 -> 85 ;
86 [label="gini = 0.0\nsamples = 1\nvalue = [0, 1]"] ;
84 -> 86 ;
87 [label="X[9] <= 0.5379\ngini = 0.4537\nsamples = 46\nvalue = [16, 30]"] ;
77 -> 87 ;
88 [label="X[1] <= 0.0523\ngini = 0.1244\nsamples = 30\nvalue = [2, 28]"] ;
87 -> 88 ;
89 [label="X[6] <= 1.4414\ngini = 0.4444\nsamples = 3\nvalue = [2, 1]"] ;
88 -> 89 ;
90 [label="gini = 0.0\nsamples = 2\nvalue = [2, 0]"] ;
89 -> 90 ;
91 [label="gini = 0.0\nsamples = 1\nvalue = [0, 1]"] ;
89 -> 91 ;
92 [label="gini = 0.0\nsamples = 27\nvalue = [0, 27]"] ;
88 -> 92 ;
93 [label="X[2] <= 0.1386\ngini = 0.2188\nsamples = 16\nvalue = [14, 2]"] ;
87 -> 93 ;
94 [label="X[6] <= 1.7185\ngini = 0.4444\nsamples = 3\nvalue = [1, 2]"] ;
93 -> 94 ;
95 [label="gini = 0.0\nsamples = 2\nvalue = [0, 2]"] ;
94 -> 95 ;
96 [label="gini = 0.0\nsamples = 1\nvalue = [1, 0]"] ;
94 -> 96 ;
97 [label="gini = 0.0\nsamples = 13\nvalue = [13, 0]"] ;
93 -> 97 ;
98 [label="X[11] <= 0.0783\ngini = 0.0327\nsamples = 1444\nvalue = [1420, 24]"] ;
76 -> 98 ;
99 [label="gini = 0.0\nsamples = 1\nvalue = [0, 1]"] ;
98 -> 99 ;
100 [label="X[8] <= 0.9076\ngini = 0.0314\nsamples = 1443\nvalue = [1420, 23]"] ;
98 -> 100 ;
101 [label="X[9] <= 0.0816\ngini = 0.0054\nsamples = 1107\nvalue = [1104, 3]"] ;
100 -> 101 ;
102 [label="X[19] <= 0.0637\ngini = 0.4444\nsamples = 3\nvalue = [2, 1]"] ;
101 -> 102 ;
103 [label="gini = 0.0\nsamples = 1\nvalue = [0, 1]"] ;
102 -> 103 ;
104 [label="gini = 0.0\nsamples = 2\nvalue = [2, 0]"] ;
102 -> 104 ;
105 [label="X[12] <= 0.148\ngini = 0.0036\nsamples = 1104\nvalue = [1102, 2]"] ;
101 -> 105 ;
106 [label="X[10] <= 0.1473\ngini = 0.32\nsamples = 5\nvalue = [4, 1]"] ;
105 -> 106 ;
107 [label="gini = 0.0\nsamples = 1\nvalue = [0, 1]"] ;
106 -> 107 ;
108 [label="gini = 0.0\nsamples = 4\nvalue = [4, 0]"] ;
106 -> 108 ;
109 [label="X[10] <= 0.2771\ngini = 0.0018\nsamples = 1099\nvalue = [1098, 1]"] ;
105 -> 109 ;
110 [label="gini = 0.0\nsamples = 1089\nvalue = [1089, 0]"] ;
109 -> 110 ;
111 [label="X[12] <= 0.154\ngini = 0.18\nsamples = 10\nvalue = [9, 1]"] ;
109 -> 111 ;
112 [label="gini = 0.0\nsamples = 1\nvalue = [0, 1]"] ;
111 -> 112 ;
113 [label="gini = 0.0\nsamples = 9\nvalue = [9, 0]"] ;
111 -> 113 ;
114 [label="X[18] <= 5.2891\ngini = 0.112\nsamples = 336\nvalue = [316, 20]"] ;
100 -> 114 ;
115 [label="X[12] <= 0.1495\ngini = 0.0228\nsamples = 260\nvalue = [257, 3]"] ;
114 -> 115 ;
116 [label="X[18] <= 4.166\ngini = 0.2604\nsamples = 13\nvalue = [11, 2]"] ;
115 -> 116 ;
117 [label="gini = 0.0\nsamples = 11\nvalue = [11, 0]"] ;
116 -> 117 ;
118 [label="gini = 0.0\nsamples = 2\nvalue = [0, 2]"] ;
116 -> 118 ;
119 [label="X[5] <= 0.049\ngini = 0.0081\nsamples = 247\nvalue = [246, 1]"] ;
115 -> 119 ;
120 [label="X[1] <= 0.0621\ngini = 0.142\nsamples = 13\nvalue = [12, 1]"] ;
119 -> 120 ;
121 [label="gini = 0.0\nsamples = 12\nvalue = [12, 0]"] ;
120 -> 121 ;
122 [label="gini = 0.0\nsamples = 1\nvalue = [0, 1]"] ;
120 -> 122 ;
123 [label="gini = 0.0\nsamples = 234\nvalue = [234, 0]"] ;
119 -> 123 ;
124 [label="X[13] <= 0.0272\ngini = 0.3473\nsamples = 76\nvalue = [59, 17]"] ;
114 -> 124 ;
125 [label="X[14] <= 0.256\ngini = 0.4734\nsamples = 39\nvalue = [24, 15]"] ;
124 -> 125 ;
126 [label="X[8] <= 0.9137\ngini = 0.3457\nsamples = 9\nvalue = [2, 7]"] ;
125 -> 126 ;
127 [label="gini = 0.0\nsamples = 1\nvalue = [1, 0]"] ;
126 -> 127 ;
128 [label="X[8] <= 0.9628\ngini = 0.2188\nsamples = 8\nvalue = [1, 7]"] ;
126 -> 128 ;
129 [label="gini = 0.0\nsamples = 7\nvalue = [0, 7]"] ;
128 -> 129 ;
130 [label="gini = 0.0\nsamples = 1\nvalue = [1, 0]"] ;
128 -> 130 ;
131 [label="X[12] <= 0.1586\ngini = 0.3911\nsamples = 30\nvalue = [22, 8]"] ;
125 -> 131 ;
132 [label="gini = 0.0\nsamples = 10\nvalue = [10, 0]"] ;
131 -> 132 ;
133 [label="X[12] <= 0.1807\ngini = 0.48\nsamples = 20\nvalue = [12, 8]"] ;
131 -> 133 ;
134 [label="X[2] <= 0.1675\ngini = 0.4898\nsamples = 14\nvalue = [6, 8]"] ;
133 -> 134 ;
135 [label="X[3] <= 0.0368\ngini = 0.32\nsamples = 5\nvalue = [4, 1]"] ;
134 -> 135 ;
136 [label="gini = 0.0\nsamples = 1\nvalue = [0, 1]"] ;
135 -> 136 ;
137 [label="gini = 0.0\nsamples = 4\nvalue = [4, 0]"] ;
135 -> 137 ;
138 [label="X[15] <= 0.5873\ngini = 0.3457\nsamples = 9\nvalue = [2, 7]"] ;
134 -> 138 ;
139 [label="gini = 0.0\nsamples = 2\nvalue = [2, 0]"] ;
138 -> 139 ;
140 [label="gini = 0.0\nsamples = 7\nvalue = [0, 7]"] ;
138 -> 140 ;
141 [label="gini = 0.0\nsamples = 6\nvalue = [6, 0]"] ;
133 -> 141 ;
142 [label="X[17] <= 5.5234\ngini = 0.1023\nsamples = 37\nvalue = [35, 2]"] ;
124 -> 142 ;
143 [label="gini = 0.0\nsamples = 1\nvalue = [0, 1]"] ;
142 -> 143 ;
144 [label="X[12] <= 0.1496\ngini = 0.054\nsamples = 36\nvalue = [35, 1]"] ;
142 -> 144 ;
145 [label="X[15] <= 1.2991\ngini = 0.4444\nsamples = 3\nvalue = [2, 1]"] ;
144 -> 145 ;
146 [label="gini = 0.0\nsamples = 2\nvalue = [2, 0]"] ;
145 -> 146 ;
147 [label="gini = 0.0\nsamples = 1\nvalue = [0, 1]"] ;
145 -> 147 ;
148 [label="gini = 0.0\nsamples = 33\nvalue = [33, 0]"] ;
144 -> 148 ;
}